<Nnet3>

input-node name=input dim=28
component-node name=lstm1 input=Append(input, IfDefined(Offset(lstm1.c, -1))) component=lstm1
dim-range-node name=lstm1.c input-node=lstm1 dim-offset=0 dim=7
dim-range-node name=lstm1.m input-node=lstm1 dim-offset=7 dim=7
output-node name=output input=lstm1.m

<NumComponents> 1
<ComponentName> lstm1 <LstmNonlinearityComponent> <MaxChange> 0.75 <LearningRate> 0.0005 <Params>  [
  0.4967141530112327 -0.13826430117118466 0.6476885381006925 1.5230298564080254 -0.23415337472333597 -0.23413695694918055 1.5792128155073915
  0.7674347291529088 -0.4694743859349521 0.5425600435859647 -0.46341769281246226 -0.46572975357025687 0.24196227156603412 -1.913280244657798
  -1.7249178325130328 -0.5622875292409727 -1.0128311203344238 0.3142473325952739 -0.9080240755212109 -1.4123037013352915 1.465648768921554 ]
<ValueAvg>  [
  0.0 0.0 0.0 0.0 0.0 0.0 0.0
  0.0 0.0 0.0 0.0 0.0 0.0 0.0
  0.0 0.0 0.0 0.0 0.0 0.0 0.0
  0.0 0.0 0.0 0.0 0.0 0.0 0.0
  0.0 0.0 0.0 0.0 0.0 0.0 0.0 ]
<DerivAvg>  [
  0.0 0.0 0.0 0.0 0.0 0.0 0.0
  0.0 0.0 0.0 0.0 0.0 0.0 0.0
  0.0 0.0 0.0 0.0 0.0 0.0 0.0
  0.0 0.0 0.0 0.0 0.0 0.0 0.0
  0.0 0.0 0.0 0.0 0.0 0.0 0.0 ]
<SelfRepairConfig> [ 0.05 0.05 0.2 0.05 0.2 1e-05 1e-05 1e-05 1e-05 1e-05 ]
<SelfRepairProb> [ 0.09288334 0.1117439 0.04945562 0.01552413 0.03755825 ]
<Count> 1 </LstmNonlinearityComponent> 
</Nnet3> 